19 100
</s> 0.004003 0.004419 -0.003830 -0.003278 0.001367 0.003021 0.000941 0.000211 -0.003604 0.002218 -0.004356 0.001250 -0.000751 -0.000957 -0.003316 -0.001882 0.002579 0.003025 0.002969 0.001597 0.001545 -0.003803 -0.004096 0.004970 0.003801 0.003090 -0.000604 0.004016 -0.000495 0.000735 -0.000149 -0.002983 0.001312 -0.001337 -0.003825 0.004754 0.004379 -0.001095 -0.000226 0.000509 -0.003638 -0.004007 0.004555 0.000063 -0.002582 -0.003042 -0.003076 0.001697 0.000201 0.001331 -0.004214 -0.003808 -0.000130 0.001144 0.002550 -0.003170 0.004080 0.000927 0.001120 -0.000608 0.002986 -0.002288 -0.002097 0.002158 -0.000753 0.001031 0.001805 -0.004089 -0.001983 0.002914 0.004232 0.003932 -0.003047 -0.002108 -0.000909 0.002001 -0.003788 0.002998 0.002788 -0.001599 -0.001552 -0.002238 0.004229 0.003912 -0.001180 0.004215 0.004820 0.001815 0.004983 -0.003111 -0.001532 -0.002107 -0.002907 0.002815 0.001579 0.000425 -0.002194 0.001524 0.003059 0.000194 
, 0.085701 -0.393559 -0.177021 -0.004802 0.188923 0.227683 -0.062012 0.195260 -0.042611 0.060486 -0.086381 0.098737 -0.029002 -0.103671 0.134704 0.092972 0.110340 0.023530 0.085061 0.013068 0.102918 0.019358 -0.127395 -0.056037 -0.016769 0.063417 0.185296 0.053841 0.284919 0.059486 -0.013677 -0.277101 0.043610 0.288761 0.180719 0.029435 -0.139694 0.026258 -0.073377 -0.208955 -0.182048 0.374472 -0.094191 0.127069 -0.288607 0.272851 -0.202870 0.135066 -0.155605 0.091941 -0.115707 0.046000 0.012142 0.177871 -0.034733 -0.047410 0.327976 -0.145778 -0.189691 -0.393269 0.448521 0.102150 -0.015020 0.044273 -0.041892 0.219587 -0.226681 -0.177883 0.272516 0.064416 0.026461 -0.128736 -0.148757 0.031622 -0.218611 0.141431 -0.309125 -0.069319 0.229964 0.174994 0.006914 0.030354 0.119244 0.046510 -0.221628 0.004967 -0.434204 0.026052 0.137226 0.160864 0.023128 -0.053213 0.229705 0.043266 -0.047105 0.063016 -0.089484 -0.040021 -0.339679 0.092617 
的 0.198852 -0.403568 -0.215919 0.126561 0.159623 0.146154 -0.175127 0.072631 0.025173 -0.019513 -0.034345 0.206631 -0.004220 -0.092952 0.192023 0.196064 0.023125 -0.090850 -0.045347 -0.028494 -0.015519 -0.007820 -0.117246 -0.021926 0.099492 0.079482 0.196425 0.076934 0.184612 0.239270 0.004279 -0.231716 0.094357 0.274708 0.256372 0.050268 -0.070061 -0.022596 -0.040542 -0.299324 -0.086627 0.384195 -0.084897 0.071701 -0.247588 0.244264 -0.145361 0.209968 -0.154877 0.126579 -0.153932 -0.052274 0.031137 0.129634 -0.065823 0.050515 0.391045 -0.111007 -0.138930 -0.375159 0.382124 0.120014 -0.102892 0.100358 -0.089577 0.243639 -0.221915 -0.245501 0.347247 -0.035339 -0.018308 -0.071437 -0.089689 0.032755 -0.141887 0.084265 -0.247578 -0.035344 0.096564 0.170167 -0.062533 0.182983 0.065492 0.107842 -0.217433 0.001255 -0.387223 0.114096 0.260141 0.277618 -0.002754 -0.105358 0.188950 0.194972 0.205615 0.047016 -0.142743 -0.025388 -0.217831 0.051926 
。 0.132907 -0.393353 -0.174996 0.135034 0.218650 0.185228 -0.057582 0.179840 0.012054 -0.031878 -0.088111 0.167945 -0.021654 -0.077835 0.123897 0.204371 -0.054432 0.018944 0.048595 0.004614 -0.023421 0.132914 -0.117856 -0.019546 0.090502 0.020391 0.047506 0.068135 0.229466 0.082841 0.050221 -0.141600 0.117575 0.188897 0.170805 0.007736 -0.142481 -0.016868 -0.065723 -0.227639 -0.186317 0.390498 -0.068240 0.089013 -0.334377 0.466632 -0.242107 0.165753 -0.183866 0.146184 -0.110114 0.013787 0.094213 0.153231 -0.083635 -0.049166 0.346415 -0.217034 -0.191412 -0.359923 0.468062 0.015245 -0.105936 0.120761 0.029287 0.160493 -0.187822 -0.258809 0.345610 0.022831 -0.014272 -0.095504 -0.098864 -0.031687 -0.331927 0.098387 -0.261795 -0.045252 0.188098 0.216623 0.014445 0.079065 0.077978 -0.065096 -0.150808 -0.004005 -0.417909 -0.000262 0.158773 0.120303 -0.085673 -0.010067 0.157973 0.096813 0.118783 0.051119 -0.105829 -0.066866 -0.287659 0.128863 
<DIGIT> 0.060741 -0.222271 -0.234273 -0.258399 0.198830 0.041292 -0.082834 0.354529 -0.227717 -0.244994 0.044775 0.063654 -0.057973 0.295146 0.020383 -0.035734 0.010397 0.305412 0.171077 -0.143199 -0.109069 0.052489 0.136940 -0.121960 0.316188 0.191192 -0.031349 -0.055616 0.229693 -0.262087 -0.182911 -0.061775 0.139832 0.520670 0.145191 0.083236 -0.259936 0.006713 -0.049467 0.251074 -0.324420 0.200323 -0.274741 0.112739 -0.641593 0.289497 -0.371979 0.356002 -0.180755 0.207350 0.059696 0.063194 0.053283 0.153032 -0.065915 0.054094 0.491007 -0.149914 -0.132639 -0.474579 0.564066 -0.112901 -0.395328 -0.003931 -0.183352 0.485121 0.105067 -0.169732 0.435634 -0.214849 0.026836 -0.167142 0.051921 -0.229174 -0.081051 0.470971 -0.395355 0.076781 0.447856 0.226218 0.160658 0.095262 0.082181 0.055901 -0.280702 0.060461 -0.374210 -0.063693 0.357334 0.161732 -0.090756 0.197567 0.177060 0.076279 -0.104108 0.085866 0.285161 -0.310761 -0.622065 0.234151 
、 0.222832 -0.119973 0.167973 0.152899 0.090458 0.009138 -0.143272 -0.019002 -0.023455 -0.122154 -0.421334 0.336252 0.458932 -0.145373 0.364202 -0.302024 0.238636 0.172693 -0.236345 -0.294463 0.084857 -0.152017 -0.310146 0.295615 0.040351 0.036511 0.017614 -0.191310 0.267197 0.345351 0.260637 -0.091599 0.117983 0.718648 0.437315 -0.042274 0.217571 0.286524 -0.075053 -0.394353 -0.079946 0.176800 -0.224159 0.274269 -0.347380 0.208934 -0.189622 0.212279 -0.226055 0.073333 -0.014651 -0.201439 -0.346197 -0.092516 0.038054 0.034723 0.376595 -0.286196 -0.363135 -0.183293 0.255714 0.133061 -0.523290 0.167591 0.119877 0.174468 -0.342152 -0.141835 0.309309 -0.109393 0.050827 -0.148433 0.098183 0.151190 -0.298408 0.201755 -0.386430 0.232739 0.386996 0.092197 -0.266736 -0.053338 0.472635 0.360699 -0.009691 0.090983 -0.252478 -0.070490 0.373654 0.379755 0.255035 0.137067 0.156875 -0.013594 0.724987 0.063917 -0.380623 -0.056176 -0.376678 0.196010 
在 0.257652 -0.164381 -0.329026 0.056309 0.062852 0.138020 -0.095741 0.218419 -0.009391 0.057505 0.064557 -0.049884 -0.078014 0.107726 0.019830 0.066543 -0.000663 0.069607 0.358651 0.010241 0.130353 0.095815 -0.082060 0.036787 0.083731 -0.180600 0.157953 0.118319 0.175858 0.135277 0.064655 -0.119124 0.116186 0.296147 0.295014 0.134111 -0.060863 0.160903 -0.195790 -0.212382 -0.013848 0.299200 -0.050351 0.193710 -0.330728 0.069212 -0.304441 0.360646 -0.057937 0.082726 -0.044668 0.168490 -0.042758 0.123594 -0.063427 0.172290 0.413544 -0.148017 -0.195448 -0.404041 0.196974 0.095733 -0.015847 0.138734 -0.140388 0.184683 -0.176549 -0.244356 0.435148 0.185826 0.067313 0.042075 -0.145727 0.070443 -0.253387 0.263640 -0.320601 0.132418 0.220046 0.306974 -0.054291 0.192480 0.207445 0.198760 -0.302750 0.014501 -0.424123 0.230725 0.202279 0.076613 -0.012297 -0.156054 0.185259 0.275985 -0.062744 0.171675 -0.148856 -0.213850 -0.328227 0.099743 
和 0.113956 -0.474165 -0.214246 0.227972 0.160430 0.103556 -0.200265 0.094210 -0.025309 -0.085953 -0.315464 0.211122 0.162042 -0.267161 0.305166 -0.179786 0.112091 -0.004126 -0.102129 -0.125075 0.063192 0.054100 -0.200275 0.117149 -0.015743 0.039814 0.165881 -0.051521 0.263411 0.242788 0.029893 -0.154144 0.195846 0.428453 0.387856 -0.171872 0.021763 0.157453 -0.200927 -0.290839 0.056516 0.248479 -0.039240 0.107482 -0.261883 0.290830 -0.047452 0.245185 -0.234519 0.089121 -0.147558 -0.062787 -0.017674 -0.080973 -0.025536 0.096496 0.378491 -0.082413 -0.260734 -0.157522 0.327060 0.016461 -0.219923 0.142837 -0.065885 0.204708 -0.295403 -0.172960 0.414020 -0.071552 0.101808 -0.075822 -0.062031 -0.048819 -0.324104 0.166842 -0.325584 0.043270 0.171608 0.097325 -0.188228 0.074811 0.265144 0.319144 -0.247040 0.026561 -0.399785 0.050350 0.399483 0.525950 0.128980 0.006210 0.105957 0.191394 0.445341 0.160439 -0.189160 -0.030149 -0.344108 0.073580 
了 0.101327 -0.340583 -0.160095 0.188482 0.396143 0.221123 0.074822 0.118186 -0.173668 0.023999 -0.127964 0.020748 0.165052 -0.033353 0.132070 0.375109 -0.028006 0.257024 0.067468 -0.112099 0.162080 -0.098646 -0.016232 0.186676 0.061091 0.037291 0.148036 0.041247 0.459630 -0.017931 -0.062524 -0.171419 -0.033058 0.097541 0.289151 0.075802 -0.046498 -0.027891 -0.174609 -0.383120 0.022564 0.450327 -0.139045 -0.013339 -0.195747 0.320791 -0.154539 -0.076722 -0.230027 0.197900 -0.396055 0.017184 0.077110 0.224987 -0.279744 0.260993 0.372136 -0.137235 -0.204671 -0.323413 0.626987 0.184988 -0.095015 0.110491 -0.154318 0.095656 -0.097926 -0.111952 0.372641 -0.054378 0.168356 -0.069020 -0.081711 -0.067149 -0.204985 0.066516 -0.197024 -0.062401 0.387182 0.389644 -0.121458 0.161188 -0.047453 0.095041 -0.185585 -0.044486 -0.494684 0.196577 0.172669 0.161461 0.040653 -0.210652 0.196268 0.140141 0.230681 0.147489 -0.023002 -0.176401 -0.286463 0.180423 
” -0.007329 0.083375 0.048456 0.057373 0.021147 0.127840 0.235982 0.297460 0.140830 -0.041583 -0.190044 0.291474 -0.109668 -0.196297 0.199313 0.363936 -0.093003 -0.021849 -0.038790 0.118069 -0.032545 -0.226412 -0.399266 0.088375 0.155538 0.129311 0.293285 0.158984 0.157018 0.221921 0.314686 -0.160720 0.293981 0.135918 0.128894 0.415844 0.008903 -0.041405 0.196231 -0.304776 -0.078204 0.363558 -0.165271 0.089468 -0.224723 0.585370 -0.179676 0.404248 -0.281487 0.070639 -0.150516 -0.113552 -0.107139 -0.390195 0.032645 -0.384209 0.248879 -0.182764 -0.060263 -0.400191 0.372920 -0.122942 -0.170092 -0.108411 0.045115 0.141110 -0.028489 -0.242734 0.072429 -0.202788 0.067278 0.014861 0.010484 0.102034 -0.445652 0.047372 -0.176850 0.172143 0.056189 0.408136 -0.153799 -0.041255 0.006514 -0.040733 -0.026174 -0.115819 -0.601490 0.219142 0.237183 -0.085037 0.029268 -0.203355 0.289868 0.099488 0.041523 0.059076 -0.157353 0.117384 0.041158 0.178850 
“ -0.030795 0.112702 0.023219 -0.017336 0.044736 0.107817 0.244742 0.259314 0.090599 -0.084072 -0.093538 0.280579 -0.104901 -0.105644 0.211854 0.259629 -0.061177 0.007854 0.033513 0.085503 0.012433 -0.242084 -0.357629 0.108551 0.119015 0.159640 0.329194 0.151271 0.083130 0.248299 0.249653 -0.196077 0.224244 0.189729 0.116772 0.470911 -0.018562 -0.055334 0.223599 -0.352640 -0.015840 0.365490 -0.152198 0.081872 -0.208753 0.492761 -0.226010 0.439766 -0.227102 0.091261 -0.160078 0.015787 -0.066941 -0.473500 0.105492 -0.349034 0.241747 -0.197776 -0.065744 -0.458669 0.339748 -0.044966 -0.105653 -0.121413 0.007587 0.102091 -0.026918 -0.254502 0.022077 -0.153488 0.127335 -0.040312 0.019206 0.121451 -0.478493 0.075795 -0.140572 0.185529 0.069851 0.434688 -0.021587 -0.066319 -0.000352 0.054394 -0.048879 -0.075943 -0.585463 0.242083 0.224468 -0.073060 0.039413 -0.219112 0.339663 0.137441 -0.045943 0.082735 -0.036107 0.166053 0.042834 0.176867 
一 0.068493 -0.265814 -0.112085 -0.011734 0.338343 0.152122 0.045935 0.085368 -0.073094 0.032233 0.167919 0.189312 0.208282 0.231266 0.413550 0.040403 -0.188457 0.055825 0.070306 0.035990 0.134732 -0.023240 -0.080036 -0.154180 -0.042970 0.155083 0.270555 0.031494 0.233501 0.011121 -0.004429 -0.250721 -0.062930 0.108358 0.326444 0.324709 -0.094181 -0.097482 0.032007 -0.167077 -0.046996 0.357512 -0.298320 0.044376 -0.220088 0.305193 -0.256637 0.433242 -0.076173 0.268276 -0.256677 -0.189332 -0.069479 0.150369 -0.010491 -0.132625 0.539578 0.013616 -0.070974 -0.499189 0.603072 0.015097 -0.024703 0.212415 -0.195967 0.143157 -0.191341 -0.127956 0.303320 0.008334 -0.008095 0.067396 -0.058222 -0.005306 -0.036708 0.260481 -0.370666 -0.210087 -0.142963 0.404046 0.069251 0.003810 -0.124464 -0.114261 -0.346432 -0.010953 -0.507751 0.541160 0.076993 0.135976 -0.113358 -0.105816 0.128537 0.069999 -0.008686 -0.144119 0.096018 -0.240729 0.012334 0.355736 
是 0.272056 -0.376730 -0.233754 -0.095280 0.181219 -0.053713 -0.082934 0.078455 0.028706 0.078400 0.086477 0.426575 -0.158978 0.159884 0.108721 0.038484 -0.033834 -0.177254 -0.063702 0.004803 -0.205589 0.043922 -0.352910 0.144214 -0.000406 0.170727 0.332762 -0.020568 -0.061350 0.160795 0.198989 -0.374341 0.202907 0.347853 0.171312 0.195084 0.084288 -0.231092 0.197916 -0.282050 0.031531 0.455164 -0.202368 0.141743 -0.236022 0.436710 -0.112070 0.347815 -0.276588 0.024937 -0.054349 0.013111 -0.119007 0.043930 -0.004566 -0.030303 0.341644 -0.077746 -0.094300 -0.428403 0.246628 0.004753 0.015461 0.034193 -0.015587 0.127419 -0.172249 -0.138084 0.337545 -0.059389 0.026377 -0.041065 -0.155773 0.114001 -0.265856 -0.060761 -0.202709 -0.076804 0.037690 0.310342 0.056148 0.151413 0.126354 0.095001 -0.218760 0.052850 -0.230956 0.374580 0.152864 0.113268 -0.104193 -0.138477 0.221241 0.232003 -0.021455 -0.108617 -0.047883 0.129650 -0.110145 0.109635 
日 0.333851 -0.108225 -0.103803 -0.084300 -0.048900 0.224373 -0.085098 0.243501 -0.161796 -0.183461 0.049351 -0.055446 0.027038 0.570906 -0.268467 0.034627 0.023864 0.213260 0.369809 0.086581 -0.050452 0.067122 -0.012075 -0.052828 0.177077 0.026804 -0.084060 -0.182622 0.151992 -0.035160 -0.126005 0.360796 0.215387 0.591348 0.153240 0.113750 -0.411776 0.025382 -0.033712 0.378901 -0.065339 0.142203 -0.020232 0.200236 -0.639324 0.250927 -0.439212 0.530862 -0.008817 0.094645 -0.152092 0.177066 -0.146387 -0.217489 -0.048618 0.010868 0.145947 -0.117188 -0.398660 -0.380940 0.358219 -0.200238 -0.069454 0.098705 -0.109093 0.743497 -0.266227 -0.300257 0.367579 0.013900 0.085242 -0.122022 0.182946 0.111662 -0.275041 0.494497 -0.338254 0.162801 0.712694 0.584822 0.092668 0.280240 0.366845 -0.000176 -0.517985 -0.035129 -0.620691 0.006358 0.241731 -0.013412 -0.273379 -0.005316 0.234647 0.179680 -0.062782 0.249792 0.177384 -0.133208 -0.606563 -0.056586 
中国 0.121033 -0.242950 -0.031379 -0.165702 0.024029 0.233079 0.025579 -0.089208 -0.212704 0.075544 -0.046170 0.092311 -0.128373 -0.116394 0.236408 0.168330 -0.275650 -0.135237 -0.083442 -0.258010 0.151668 0.045024 0.047782 0.433333 -0.044914 0.286901 0.162661 0.186606 0.066385 0.260462 0.081172 -0.131921 0.275183 0.579065 -0.080203 -0.080970 -0.017552 -0.012015 -0.301151 -0.428228 -0.122421 0.351912 -0.099208 0.299994 -0.469535 0.340711 0.233038 0.246853 -0.111815 -0.011441 -0.065984 -0.017589 -0.080202 -0.249021 -0.088746 -0.050771 0.263448 -0.358197 -0.473111 -0.479492 0.422216 0.074291 0.025757 0.243568 -0.373213 0.290960 -0.262212 0.108633 0.461499 -0.147050 0.110149 0.028857 0.056532 -0.195667 -0.371344 -0.122394 -0.359401 0.105942 0.389012 0.422753 -0.134823 0.387579 0.375896 -0.186395 0.095190 -0.157651 -0.435779 0.211355 0.316943 0.419124 -0.089927 -0.059252 0.279767 0.341192 -0.239724 -0.135071 -0.004824 0.104575 -0.407681 -0.364587 
年 0.027739 -0.127939 -0.195480 -0.069313 0.384219 -0.043416 -0.137558 0.309664 -0.326233 -0.040556 0.137992 0.378730 -0.079529 0.199916 -0.215969 0.181009 -0.033686 -0.015207 0.360084 -0.075522 0.020367 -0.244975 0.132977 0.128970 0.262738 0.144064 0.113425 0.286852 -0.117007 -0.335389 -0.213600 -0.080006 0.162758 0.346007 -0.174345 0.506119 -0.282569 -0.085722 -0.101303 0.248220 -0.219389 0.474939 -0.276340 0.042369 -0.441118 0.126763 -0.116064 0.236934 -0.475890 -0.198677 -0.017587 0.182829 -0.378061 -0.254959 -0.277798 0.167537 0.230049 -0.306307 -0.124067 -0.267204 0.411908 0.083812 -0.379141 -0.134389 -0.082496 0.547148 -0.180144 -0.081676 0.550210 -0.063465 -0.030322 -0.023108 -0.265723 -0.200414 -0.191785 0.186473 -0.231849 -0.228609 0.533815 0.295629 0.094867 0.389911 0.130017 0.044372 0.117041 0.277034 -0.389862 0.122495 0.369252 0.085782 0.074185 0.081657 0.395639 0.128006 -0.092018 0.228124 0.071128 -0.026014 -0.439080 -0.002417 
将 0.087154 -0.296663 -0.129992 0.031087 0.285086 0.350339 -0.139337 0.467490 0.045324 0.123263 -0.127075 0.115784 -0.086615 -0.216177 -0.200763 0.232632 -0.131160 0.041297 0.227835 0.064065 -0.140538 -0.045281 -0.138669 -0.015686 0.029660 -0.241202 0.041505 -0.086947 0.177030 -0.038917 -0.061032 0.087117 0.155399 0.178465 0.138437 0.161944 -0.310045 -0.066106 -0.190541 -0.092402 -0.093150 0.014458 0.101502 0.132795 -0.260759 0.070704 -0.038758 0.453941 -0.306883 0.153703 -0.150972 0.105708 -0.082933 -0.011070 -0.216636 -0.085030 0.455470 -0.202416 -0.333493 -0.447354 0.442845 -0.249856 -0.291428 0.299213 0.205765 0.217746 -0.440151 -0.115680 0.351678 0.239397 -0.122924 -0.018465 -0.097959 0.139992 -0.162713 0.118563 -0.348304 -0.003722 0.366775 0.065898 -0.108588 0.264499 0.213866 -0.001205 -0.208913 -0.140772 -0.474944 0.091263 0.286390 0.261155 -0.238072 -0.051522 0.050054 0.396360 0.051597 0.160656 0.097387 -0.217471 -0.372857 0.198485 
中 0.431446 -0.358930 -0.385012 0.065323 0.117514 -0.016001 -0.209022 0.237812 -0.261810 -0.204814 -0.122180 -0.137839 0.002945 -0.049657 0.285468 0.277637 -0.057047 -0.262095 -0.073601 0.070121 0.336914 -0.159992 -0.201716 -0.096081 0.174251 -0.233230 -0.092376 0.361221 0.027324 0.095521 -0.015885 0.021359 0.263985 0.085527 0.275397 -0.074193 -0.209628 0.080690 -0.305564 -0.140468 0.077973 0.612925 -0.015396 0.243152 -0.368458 0.352470 -0.231476 0.472275 -0.262444 0.164729 -0.166502 0.135711 -0.207339 0.184621 -0.035043 -0.121484 0.534563 0.141226 -0.138120 -0.360957 0.395600 0.281483 0.035751 0.232396 0.032852 0.273063 -0.012318 -0.390800 0.355756 0.000559 0.208094 -0.092839 -0.097010 -0.016911 -0.363408 0.091847 -0.114519 0.063905 0.055801 0.135244 0.004534 0.002394 0.186331 0.278355 -0.121239 -0.007643 -0.372965 0.312600 -0.034702 0.240707 0.152670 0.037495 0.116418 0.374899 -0.084496 0.042380 0.005656 -0.274610 -0.319039 0.161236 
个 -0.057806 -0.334503 -0.011032 0.077128 0.432026 0.462269 -0.439184 0.221342 -0.091630 -0.085970 -0.110888 0.427941 0.100267 0.007663 -0.002769 -0.174594 -0.044990 0.052713 -0.057279 0.143583 -0.021955 -0.043645 0.094123 0.343228 0.106019 0.493066 0.379183 0.165791 -0.022945 -0.095192 -0.000001 -0.225737 -0.147495 0.331026 0.303934 0.279716 0.065190 -0.094163 -0.148074 -0.139675 -0.107132 0.297713 -0.089499 0.252248 -0.318214 0.271156 -0.179165 0.371299 -0.092320 0.340315 -0.274007 -0.211743 -0.090516 0.185389 -0.054424 0.131799 0.279564 0.043058 0.016456 -0.437550 0.547415 0.119606 -0.122427 -0.011970 -0.193327 0.511866 0.270564 -0.065985 0.374671 -0.282710 -0.150993 -0.103643 -0.212919 -0.045025 -0.208607 0.406515 -0.547151 -0.122010 -0.041496 0.179326 0.048069 -0.127476 -0.152723 0.126142 -0.142552 0.165248 -0.269553 0.465632 0.350318 -0.179993 -0.250186 -0.084951 0.201936 0.351722 0.058389 0.123121 -0.023132 -0.214695 -0.146509 0.228070 
